digraph Tree {
node [shape=box, style="filled, rounded", color="black", fontname="helvetica"] ;
edge [fontname="helvetica"] ;
0 [label="petal length (cm) <= 2.45\ngini = 0.663\nsamples = 105\nvalue = [32, 40, 33]\nclass = versicolor", fillcolor="#ecfcf3"] ;
1 [label="gini = 0.0\nsamples = 32\nvalue = [32, 0, 0]\nclass = setosa", fillcolor="#e58139"] ;
0 -> 1 [labeldistance=2.5, labelangle=45, headlabel="True"] ;
2 [label="petal width (cm) <= 1.75\ngini = 0.495\nsamples = 73\nvalue = [0, 40, 33]\nclass = versicolor", fillcolor="#dcfae9"] ;
0 -> 2 [labeldistance=2.5, labelangle=-45, headlabel="False"] ;
3 [label="petal length (cm) <= 5.35\ngini = 0.133\nsamples = 42\nvalue = [0, 39, 3]\nclass = versicolor", fillcolor="#48e78b"] ;
2 -> 3 ;
4 [label="sepal length (cm) <= 5.0\ngini = 0.049\nsamples = 40\nvalue = [0, 39, 1]\nclass = versicolor", fillcolor="#3ee684"] ;
3 -> 4 ;
5 [label="petal width (cm) <= 1.35\ngini = 0.5\nsamples = 2\nvalue = [0, 1, 1]\nclass = versicolor", fillcolor="#ffffff"] ;
4 -> 5 ;
6 [label="gini = 0.0\nsamples = 1\nvalue = [0, 1, 0]\nclass = versicolor", fillcolor="#39e581"] ;
5 -> 6 ;
7 [label="gini = 0.0\nsamples = 1\nvalue = [0, 0, 1]\nclass = virginica", fillcolor="#8139e5"] ;
5 -> 7 ;
8 [label="gini = 0.0\nsamples = 38\nvalue = [0, 38, 0]\nclass = versicolor", fillcolor="#39e581"] ;
4 -> 8 ;
9 [label="gini = 0.0\nsamples = 2\nvalue = [0, 0, 2]\nclass = virginica", fillcolor="#8139e5"] ;
3 -> 9 ;
10 [label="petal length (cm) <= 4.85\ngini = 0.062\nsamples = 31\nvalue = [0, 1, 30]\nclass = virginica", fillcolor="#8540e6"] ;
2 -> 10 ;
11 [label="sepal width (cm) <= 3.0\ngini = 0.5\nsamples = 2\nvalue = [0, 1, 1]\nclass = versicolor", fillcolor="#ffffff"] ;
10 -> 11 ;
12 [label="gini = 0.0\nsamples = 1\nvalue = [0, 0, 1]\nclass = virginica", fillcolor="#8139e5"] ;
11 -> 12 ;
13 [label="gini = 0.0\nsamples = 1\nvalue = [0, 1, 0]\nclass = versicolor", fillcolor="#39e581"] ;
11 -> 13 ;
14 [label="gini = 0.0\nsamples = 29\nvalue = [0, 0, 29]\nclass = virginica", fillcolor="#8139e5"] ;
10 -> 14 ;
}